digraph Tree {
node [shape=box, fontname="helvetica"] ;
edge [fontname="helvetica"] ;
0 [label="x[1] <= 123.5\ngini = 0.461\nsamples = 614\nvalue = [393, 221]\nclass = 0"] ;
1 [label="x[7] <= 28.5\ngini = 0.301\nsamples = 352\nvalue = [287, 65]\nclass = 0"] ;
0 -> 1 [labeldistance=2.5, labelangle=45, headlabel="True"] ;
2 [label="x[5] <= 30.95\ngini = 0.162\nsamples = 202\nvalue = [184, 18]\nclass = 0"] ;
1 -> 2 ;
3 [label="x[0] <= 7.0\ngini = 0.036\nsamples = 110\nvalue = [108, 2]\nclass = 0"] ;
2 -> 3 ;
4 [label="x[6] <= 0.672\ngini = 0.018\nsamples = 109\nvalue = [108, 1]\nclass = 0"] ;
3 -> 4 ;
5 [label="gini = 0.0\nsamples = 99\nvalue = [99, 0]\nclass = 0"] ;
4 -> 5 ;
6 [label="x[6] <= 0.697\ngini = 0.18\nsamples = 10\nvalue = [9, 1]\nclass = 0"] ;
4 -> 6 ;
7 [label="gini = 0.0\nsamples = 1\nvalue = [0, 1]\nclass = 1"] ;
6 -> 7 ;
8 [label="gini = 0.0\nsamples = 9\nvalue = [9, 0]\nclass = 0"] ;
6 -> 8 ;
9 [label="gini = 0.0\nsamples = 1\nvalue = [0, 1]\nclass = 1"] ;
3 -> 9 ;
10 [label="x[2] <= 53.0\ngini = 0.287\nsamples = 92\nvalue = [76, 16]\nclass = 0"] ;
2 -> 10 ;
11 [label="x[6] <= 0.508\ngini = 0.444\nsamples = 6\nvalue = [2, 4]\nclass = 1"] ;
10 -> 11 ;
12 [label="gini = 0.0\nsamples = 4\nvalue = [0, 4]\nclass = 1"] ;
11 -> 12 ;
13 [label="gini = 0.0\nsamples = 2\nvalue = [2, 0]\nclass = 0"] ;
11 -> 13 ;
14 [label="x[6] <= 1.272\ngini = 0.24\nsamples = 86\nvalue = [74, 12]\nclass = 0"] ;
10 -> 14 ;
15 [label="x[6] <= 0.501\ngini = 0.225\nsamples = 85\nvalue = [74, 11]\nclass = 0"] ;
14 -> 15 ;
16 [label="x[5] <= 45.35\ngini = 0.135\nsamples = 55\nvalue = [51, 4]\nclass = 0"] ;
15 -> 16 ;
17 [label="x[4] <= 36.5\ngini = 0.105\nsamples = 54\nvalue = [51, 3]\nclass = 0"] ;
16 -> 17 ;
18 [label="x[2] <= 82.5\ngini = 0.266\nsamples = 19\nvalue = [16, 3]\nclass = 0"] ;
17 -> 18 ;
19 [label="x[5] <= 33.75\ngini = 0.198\nsamples = 18\nvalue = [16, 2]\nclass = 0"] ;
18 -> 19 ;
20 [label="x[1] <= 102.0\ngini = 0.48\nsamples = 5\nvalue = [3, 2]\nclass = 0"] ;
19 -> 20 ;
21 [label="gini = 0.0\nsamples = 3\nvalue = [3, 0]\nclass = 0"] ;
20 -> 21 ;
22 [label="gini = 0.0\nsamples = 2\nvalue = [0, 2]\nclass = 1"] ;
20 -> 22 ;
23 [label="gini = 0.0\nsamples = 13\nvalue = [13, 0]\nclass = 0"] ;
19 -> 23 ;
24 [label="gini = 0.0\nsamples = 1\nvalue = [0, 1]\nclass = 1"] ;
18 -> 24 ;
25 [label="gini = 0.0\nsamples = 35\nvalue = [35, 0]\nclass = 0"] ;
17 -> 25 ;
26 [label="gini = 0.0\nsamples = 1\nvalue = [0, 1]\nclass = 1"] ;
16 -> 26 ;
27 [label="x[2] <= 69.0\ngini = 0.358\nsamples = 30\nvalue = [23, 7]\nclass = 0"] ;
15 -> 27 ;
28 [label="x[1] <= 88.5\ngini = 0.492\nsamples = 16\nvalue = [9, 7]\nclass = 0"] ;
27 -> 28 ;
29 [label="gini = 0.0\nsamples = 7\nvalue = [7, 0]\nclass = 0"] ;
28 -> 29 ;
30 [label="x[5] <= 32.25\ngini = 0.346\nsamples = 9\nvalue = [2, 7]\nclass = 1"] ;
28 -> 30 ;
31 [label="gini = 0.0\nsamples = 1\nvalue = [1, 0]\nclass = 0"] ;
30 -> 31 ;
32 [label="x[0] <= 0.5\ngini = 0.219\nsamples = 8\nvalue = [1, 7]\nclass = 1"] ;
30 -> 32 ;
33 [label="x[1] <= 100.5\ngini = 0.444\nsamples = 3\nvalue = [1, 2]\nclass = 1"] ;
32 -> 33 ;
34 [label="gini = 0.0\nsamples = 1\nvalue = [1, 0]\nclass = 0"] ;
33 -> 34 ;
35 [label="gini = 0.0\nsamples = 2\nvalue = [0, 2]\nclass = 1"] ;
33 -> 35 ;
36 [label="gini = 0.0\nsamples = 5\nvalue = [0, 5]\nclass = 1"] ;
32 -> 36 ;
37 [label="gini = 0.0\nsamples = 14\nvalue = [14, 0]\nclass = 0"] ;
27 -> 37 ;
38 [label="gini = 0.0\nsamples = 1\nvalue = [0, 1]\nclass = 1"] ;
14 -> 38 ;
39 [label="x[5] <= 26.35\ngini = 0.43\nsamples = 150\nvalue = [103, 47]\nclass = 0"] ;
1 -> 39 ;
40 [label="gini = 0.0\nsamples = 29\nvalue = [29, 0]\nclass = 0"] ;
39 -> 40 ;
41 [label="x[1] <= 99.5\ngini = 0.475\nsamples = 121\nvalue = [74, 47]\nclass = 0"] ;
39 -> 41 ;
42 [label="x[1] <= 28.5\ngini = 0.337\nsamples = 42\nvalue = [33, 9]\nclass = 0"] ;
41 -> 42 ;
43 [label="gini = 0.0\nsamples = 2\nvalue = [0, 2]\nclass = 1"] ;
42 -> 43 ;
44 [label="x[7] <= 42.5\ngini = 0.289\nsamples = 40\nvalue = [33, 7]\nclass = 0"] ;
42 -> 44 ;
45 [label="x[6] <= 1.16\ngini = 0.137\nsamples = 27\nvalue = [25, 2]\nclass = 0"] ;
44 -> 45 ;
46 [label="x[6] <= 0.171\ngini = 0.074\nsamples = 26\nvalue = [25, 1]\nclass = 0"] ;
45 -> 46 ;
47 [label="x[2] <= 66.0\ngini = 0.375\nsamples = 4\nvalue = [3, 1]\nclass = 0"] ;
46 -> 47 ;
48 [label="gini = 0.0\nsamples = 1\nvalue = [0, 1]\nclass = 1"] ;
47 -> 48 ;
49 [label="gini = 0.0\nsamples = 3\nvalue = [3, 0]\nclass = 0"] ;
47 -> 49 ;
50 [label="gini = 0.0\nsamples = 22\nvalue = [22, 0]\nclass = 0"] ;
46 -> 50 ;
51 [label="gini = 0.0\nsamples = 1\nvalue = [0, 1]\nclass = 1"] ;
45 -> 51 ;
52 [label="x[5] <= 30.85\ngini = 0.473\nsamples = 13\nvalue = [8, 5]\nclass = 0"] ;
44 -> 52 ;
53 [label="gini = 0.0\nsamples = 2\nvalue = [0, 2]\nclass = 1"] ;
52 -> 53 ;
54 [label="x[3] <= 21.5\ngini = 0.397\nsamples = 11\nvalue = [8, 3]\nclass = 0"] ;
52 -> 54 ;
55 [label="gini = 0.0\nsamples = 5\nvalue = [5, 0]\nclass = 0"] ;
54 -> 55 ;
56 [label="x[2] <= 75.0\ngini = 0.5\nsamples = 6\nvalue = [3, 3]\nclass = 0"] ;
54 -> 56 ;
57 [label="gini = 0.0\nsamples = 3\nvalue = [3, 0]\nclass = 0"] ;
56 -> 57 ;
58 [label="gini = 0.0\nsamples = 3\nvalue = [0, 3]\nclass = 1"] ;
56 -> 58 ;
59 [label="x[5] <= 27.55\ngini = 0.499\nsamples = 79\nvalue = [41, 38]\nclass = 0"] ;
41 -> 59 ;
60 [label="gini = 0.0\nsamples = 5\nvalue = [0, 5]\nclass = 1"] ;
59 -> 60 ;
61 [label="x[6] <= 0.179\ngini = 0.494\nsamples = 74\nvalue = [41, 33]\nclass = 0"] ;
59 -> 61 ;
62 [label="gini = 0.0\nsamples = 8\nvalue = [8, 0]\nclass = 0"] ;
61 -> 62 ;
63 [label="x[0] <= 6.5\ngini = 0.5\nsamples = 66\nvalue = [33, 33]\nclass = 0"] ;
61 -> 63 ;
64 [label="x[0] <= 1.5\ngini = 0.483\nsamples = 44\nvalue = [26, 18]\nclass = 0"] ;
63 -> 64 ;
65 [label="x[6] <= 0.894\ngini = 0.475\nsamples = 18\nvalue = [7, 11]\nclass = 1"] ;
64 -> 65 ;
66 [label="x[6] <= 0.2\ngini = 0.391\nsamples = 15\nvalue = [4, 11]\nclass = 1"] ;
65 -> 66 ;
67 [label="gini = 0.0\nsamples = 2\nvalue = [2, 0]\nclass = 0"] ;
66 -> 67 ;
68 [label="x[2] <= 92.0\ngini = 0.26\nsamples = 13\nvalue = [2, 11]\nclass = 1"] ;
66 -> 68 ;
69 [label="x[1] <= 101.0\ngini = 0.153\nsamples = 12\nvalue = [1, 11]\nclass = 1"] ;
68 -> 69 ;
70 [label="gini = 0.0\nsamples = 1\nvalue = [1, 0]\nclass = 0"] ;
69 -> 70 ;
71 [label="gini = 0.0\nsamples = 11\nvalue = [0, 11]\nclass = 1"] ;
69 -> 71 ;
72 [label="gini = 0.0\nsamples = 1\nvalue = [1, 0]\nclass = 0"] ;
68 -> 72 ;
73 [label="gini = 0.0\nsamples = 3\nvalue = [3, 0]\nclass = 0"] ;
65 -> 73 ;
74 [label="x[7] <= 34.5\ngini = 0.393\nsamples = 26\nvalue = [19, 7]\nclass = 0"] ;
64 -> 74 ;
75 [label="x[2] <= 63.0\ngini = 0.133\nsamples = 14\nvalue = [13, 1]\nclass = 0"] ;
74 -> 75 ;
76 [label="x[6] <= 0.468\ngini = 0.5\nsamples = 2\nvalue = [1, 1]\nclass = 0"] ;
75 -> 76 ;
77 [label="gini = 0.0\nsamples = 1\nvalue = [0, 1]\nclass = 1"] ;
76 -> 77 ;
78 [label="gini = 0.0\nsamples = 1\nvalue = [1, 0]\nclass = 0"] ;
76 -> 78 ;
79 [label="gini = 0.0\nsamples = 12\nvalue = [12, 0]\nclass = 0"] ;
75 -> 79 ;
80 [label="x[2] <= 74.5\ngini = 0.5\nsamples = 12\nvalue = [6, 6]\nclass = 0"] ;
74 -> 80 ;
81 [label="gini = 0.0\nsamples = 4\nvalue = [0, 4]\nclass = 1"] ;
80 -> 81 ;
82 [label="x[5] <= 32.65\ngini = 0.375\nsamples = 8\nvalue = [6, 2]\nclass = 0"] ;
80 -> 82 ;
83 [label="x[2] <= 85.0\ngini = 0.444\nsamples = 3\nvalue = [1, 2]\nclass = 1"] ;
82 -> 83 ;
84 [label="gini = 0.0\nsamples = 2\nvalue = [0, 2]\nclass = 1"] ;
83 -> 84 ;
85 [label="gini = 0.0\nsamples = 1\nvalue = [1, 0]\nclass = 0"] ;
83 -> 85 ;
86 [label="gini = 0.0\nsamples = 5\nvalue = [5, 0]\nclass = 0"] ;
82 -> 86 ;
87 [label="x[7] <= 39.0\ngini = 0.434\nsamples = 22\nvalue = [7, 15]\nclass = 1"] ;
63 -> 87 ;
88 [label="gini = 0.0\nsamples = 8\nvalue = [0, 8]\nclass = 1"] ;
87 -> 88 ;
89 [label="x[6] <= 0.587\ngini = 0.5\nsamples = 14\nvalue = [7, 7]\nclass = 0"] ;
87 -> 89 ;
90 [label="x[5] <= 31.8\ngini = 0.42\nsamples = 10\nvalue = [7, 3]\nclass = 0"] ;
89 -> 90 ;
91 [label="gini = 0.0\nsamples = 4\nvalue = [4, 0]\nclass = 0"] ;
90 -> 91 ;
92 [label="x[3] <= 38.0\ngini = 0.5\nsamples = 6\nvalue = [3, 3]\nclass = 0"] ;
90 -> 92 ;
93 [label="x[7] <= 49.0\ngini = 0.375\nsamples = 4\nvalue = [1, 3]\nclass = 1"] ;
92 -> 93 ;
94 [label="gini = 0.0\nsamples = 3\nvalue = [0, 3]\nclass = 1"] ;
93 -> 94 ;
95 [label="gini = 0.0\nsamples = 1\nvalue = [1, 0]\nclass = 0"] ;
93 -> 95 ;
96 [label="gini = 0.0\nsamples = 2\nvalue = [2, 0]\nclass = 0"] ;
92 -> 96 ;
97 [label="gini = 0.0\nsamples = 4\nvalue = [0, 4]\nclass = 1"] ;
89 -> 97 ;
98 [label="x[5] <= 30.05\ngini = 0.482\nsamples = 262\nvalue = [106, 156]\nclass = 1"] ;
0 -> 98 [labeldistance=2.5, labelangle=-45, headlabel="False"] ;
99 [label="x[7] <= 26.0\ngini = 0.438\nsamples = 74\nvalue = [50, 24]\nclass = 0"] ;
98 -> 99 ;
100 [label="gini = 0.0\nsamples = 19\nvalue = [19, 0]\nclass = 0"] ;
99 -> 100 ;
101 [label="x[7] <= 60.5\ngini = 0.492\nsamples = 55\nvalue = [31, 24]\nclass = 0"] ;
99 -> 101 ;
102 [label="x[1] <= 151.5\ngini = 0.5\nsamples = 47\nvalue = [23, 24]\nclass = 1"] ;
101 -> 102 ;
103 [label="x[1] <= 125.5\ngini = 0.469\nsamples = 32\nvalue = [20, 12]\nclass = 0"] ;
102 -> 103 ;
104 [label="x[3] <= 27.0\ngini = 0.375\nsamples = 8\nvalue = [2, 6]\nclass = 1"] ;
103 -> 104 ;
105 [label="gini = 0.0\nsamples = 5\nvalue = [0, 5]\nclass = 1"] ;
104 -> 105 ;
106 [label="x[4] <= 60.0\ngini = 0.444\nsamples = 3\nvalue = [2, 1]\nclass = 0"] ;
104 -> 106 ;
107 [label="gini = 0.0\nsamples = 1\nvalue = [0, 1]\nclass = 1"] ;
106 -> 107 ;
108 [label="gini = 0.0\nsamples = 2\nvalue = [2, 0]\nclass = 0"] ;
106 -> 108 ;
109 [label="x[2] <= 73.0\ngini = 0.375\nsamples = 24\nvalue = [18, 6]\nclass = 0"] ;
103 -> 109 ;
110 [label="x[2] <= 64.5\ngini = 0.5\nsamples = 8\nvalue = [4, 4]\nclass = 0"] ;
109 -> 110 ;
111 [label="x[2] <= 28.0\ngini = 0.32\nsamples = 5\nvalue = [4, 1]\nclass = 0"] ;
110 -> 111 ;
112 [label="gini = 0.0\nsamples = 1\nvalue = [0, 1]\nclass = 1"] ;
111 -> 112 ;
113 [label="gini = 0.0\nsamples = 4\nvalue = [4, 0]\nclass = 0"] ;
111 -> 113 ;
114 [label="gini = 0.0\nsamples = 3\nvalue = [0, 3]\nclass = 1"] ;
110 -> 114 ;
115 [label="x[5] <= 28.0\ngini = 0.219\nsamples = 16\nvalue = [14, 2]\nclass = 0"] ;
109 -> 115 ;
116 [label="gini = 0.0\nsamples = 9\nvalue = [9, 0]\nclass = 0"] ;
115 -> 116 ;
117 [label="x[5] <= 29.55\ngini = 0.408\nsamples = 7\nvalue = [5, 2]\nclass = 0"] ;
115 -> 117 ;
118 [label="x[4] <= 89.5\ngini = 0.444\nsamples = 3\nvalue = [1, 2]\nclass = 1"] ;
117 -> 118 ;
119 [label="gini = 0.0\nsamples = 2\nvalue = [0, 2]\nclass = 1"] ;
118 -> 119 ;
120 [label="gini = 0.0\nsamples = 1\nvalue = [1, 0]\nclass = 0"] ;
118 -> 120 ;
121 [label="gini = 0.0\nsamples = 4\nvalue = [4, 0]\nclass = 0"] ;
117 -> 121 ;
122 [label="x[5] <= 27.1\ngini = 0.32\nsamples = 15\nvalue = [3, 12]\nclass = 1"] ;
102 -> 122 ;
123 [label="gini = 0.0\nsamples = 8\nvalue = [0, 8]\nclass = 1"] ;
122 -> 123 ;
124 [label="x[5] <= 29.1\ngini = 0.49\nsamples = 7\nvalue = [3, 4]\nclass = 1"] ;
122 -> 124 ;
125 [label="x[7] <= 36.5\ngini = 0.375\nsamples = 4\nvalue = [3, 1]\nclass = 0"] ;
124 -> 125 ;
126 [label="gini = 0.0\nsamples = 1\nvalue = [0, 1]\nclass = 1"] ;
125 -> 126 ;
127 [label="gini = 0.0\nsamples = 3\nvalue = [3, 0]\nclass = 0"] ;
125 -> 127 ;
128 [label="gini = 0.0\nsamples = 3\nvalue = [0, 3]\nclass = 1"] ;
124 -> 128 ;
129 [label="gini = 0.0\nsamples = 8\nvalue = [8, 0]\nclass = 0"] ;
101 -> 129 ;
130 [label="x[1] <= 157.5\ngini = 0.418\nsamples = 188\nvalue = [56, 132]\nclass = 1"] ;
98 -> 130 ;
131 [label="x[7] <= 28.5\ngini = 0.482\nsamples = 116\nvalue = [47, 69]\nclass = 1"] ;
130 -> 131 ;
132 [label="x[2] <= 73.0\ngini = 0.49\nsamples = 42\nvalue = [24, 18]\nclass = 0"] ;
131 -> 132 ;
133 [label="x[6] <= 0.186\ngini = 0.463\nsamples = 22\nvalue = [8, 14]\nclass = 1"] ;
132 -> 133 ;
134 [label="gini = 0.0\nsamples = 3\nvalue = [3, 0]\nclass = 0"] ;
133 -> 134 ;
135 [label="x[1] <= 147.0\ngini = 0.388\nsamples = 19\nvalue = [5, 14]\nclass = 1"] ;
133 -> 135 ;
136 [label="x[4] <= 365.0\ngini = 0.231\nsamples = 15\nvalue = [2, 13]\nclass = 1"] ;
135 -> 136 ;
137 [label="x[0] <= 3.5\ngini = 0.133\nsamples = 14\nvalue = [1, 13]\nclass = 1"] ;
136 -> 137 ;
138 [label="gini = 0.0\nsamples = 11\nvalue = [0, 11]\nclass = 1"] ;
137 -> 138 ;
139 [label="x[7] <= 23.5\ngini = 0.444\nsamples = 3\nvalue = [1, 2]\nclass = 1"] ;
137 -> 139 ;
140 [label="gini = 0.0\nsamples = 2\nvalue = [0, 2]\nclass = 1"] ;
139 -> 140 ;
141 [label="gini = 0.0\nsamples = 1\nvalue = [1, 0]\nclass = 0"] ;
139 -> 141 ;
142 [label="gini = 0.0\nsamples = 1\nvalue = [1, 0]\nclass = 0"] ;
136 -> 142 ;
143 [label="x[0] <= 2.5\ngini = 0.375\nsamples = 4\nvalue = [3, 1]\nclass = 0"] ;
135 -> 143 ;
144 [label="gini = 0.0\nsamples = 1\nvalue = [0, 1]\nclass = 1"] ;
143 -> 144 ;
145 [label="gini = 0.0\nsamples = 3\nvalue = [3, 0]\nclass = 0"] ;
143 -> 145 ;
146 [label="x[2] <= 89.0\ngini = 0.32\nsamples = 20\nvalue = [16, 4]\nclass = 0"] ;
132 -> 146 ;
147 [label="x[0] <= 4.5\ngini = 0.117\nsamples = 16\nvalue = [15, 1]\nclass = 0"] ;
146 -> 147 ;
148 [label="gini = 0.0\nsamples = 14\nvalue = [14, 0]\nclass = 0"] ;
147 -> 148 ;
149 [label="x[3] <= 38.0\ngini = 0.5\nsamples = 2\nvalue = [1, 1]\nclass = 0"] ;
147 -> 149 ;
150 [label="gini = 0.0\nsamples = 1\nvalue = [0, 1]\nclass = 1"] ;
149 -> 150 ;
151 [label="gini = 0.0\nsamples = 1\nvalue = [1, 0]\nclass = 0"] ;
149 -> 151 ;
152 [label="x[5] <= 41.35\ngini = 0.375\nsamples = 4\nvalue = [1, 3]\nclass = 1"] ;
146 -> 152 ;
153 [label="gini = 0.0\nsamples = 1\nvalue = [1, 0]\nclass = 0"] ;
152 -> 153 ;
154 [label="gini = 0.0\nsamples = 3\nvalue = [0, 3]\nclass = 1"] ;
152 -> 154 ;
155 [label="x[6] <= 0.429\ngini = 0.428\nsamples = 74\nvalue = [23, 51]\nclass = 1"] ;
131 -> 155 ;
156 [label="x[5] <= 45.55\ngini = 0.499\nsamples = 38\nvalue = [18, 20]\nclass = 1"] ;
155 -> 156 ;
157 [label="x[0] <= 1.5\ngini = 0.496\nsamples = 33\nvalue = [18, 15]\nclass = 0"] ;
156 -> 157 ;
158 [label="gini = 0.0\nsamples = 3\nvalue = [0, 3]\nclass = 1"] ;
157 -> 158 ;
159 [label="x[5] <= 37.25\ngini = 0.48\nsamples = 30\nvalue = [18, 12]\nclass = 0"] ;
157 -> 159 ;
160 [label="x[5] <= 36.25\ngini = 0.499\nsamples = 21\nvalue = [10, 11]\nclass = 1"] ;
159 -> 160 ;
161 [label="x[0] <= 8.5\ngini = 0.499\nsamples = 19\nvalue = [10, 9]\nclass = 0"] ;
160 -> 161 ;
162 [label="x[6] <= 0.266\ngini = 0.49\nsamples = 14\nvalue = [6, 8]\nclass = 1"] ;
161 -> 162 ;
163 [label="x[4] <= 273.0\ngini = 0.496\nsamples = 11\nvalue = [6, 5]\nclass = 0"] ;
162 -> 163 ;
164 [label="x[1] <= 124.5\ngini = 0.444\nsamples = 9\nvalue = [6, 3]\nclass = 0"] ;
163 -> 164 ;
165 [label="gini = 0.0\nsamples = 1\nvalue = [0, 1]\nclass = 1"] ;
164 -> 165 ;
166 [label="x[7] <= 67.5\ngini = 0.375\nsamples = 8\nvalue = [6, 2]\nclass = 0"] ;
164 -> 166 ;
167 [label="x[6] <= 0.132\ngini = 0.245\nsamples = 7\nvalue = [6, 1]\nclass = 0"] ;
166 -> 167 ;
168 [label="x[3] <= 10.0\ngini = 0.5\nsamples = 2\nvalue = [1, 1]\nclass = 0"] ;
167 -> 168 ;
169 [label="gini = 0.0\nsamples = 1\nvalue = [0, 1]\nclass = 1"] ;
168 -> 169 ;
170 [label="gini = 0.0\nsamples = 1\nvalue = [1, 0]\nclass = 0"] ;
168 -> 170 ;
171 [label="gini = 0.0\nsamples = 5\nvalue = [5, 0]\nclass = 0"] ;
167 -> 171 ;
172 [label="gini = 0.0\nsamples = 1\nvalue = [0, 1]\nclass = 1"] ;
166 -> 172 ;
173 [label="gini = 0.0\nsamples = 2\nvalue = [0, 2]\nclass = 1"] ;
163 -> 173 ;
174 [label="gini = 0.0\nsamples = 3\nvalue = [0, 3]\nclass = 1"] ;
162 -> 174 ;
175 [label="x[7] <= 40.0\ngini = 0.32\nsamples = 5\nvalue = [4, 1]\nclass = 0"] ;
161 -> 175 ;
176 [label="gini = 0.0\nsamples = 3\nvalue = [3, 0]\nclass = 0"] ;
175 -> 176 ;
177 [label="x[5] <= 31.0\ngini = 0.5\nsamples = 2\nvalue = [1, 1]\nclass = 0"] ;
175 -> 177 ;
178 [label="gini = 0.0\nsamples = 1\nvalue = [1, 0]\nclass = 0"] ;
177 -> 178 ;
179 [label="gini = 0.0\nsamples = 1\nvalue = [0, 1]\nclass = 1"] ;
177 -> 179 ;
180 [label="gini = 0.0\nsamples = 2\nvalue = [0, 2]\nclass = 1"] ;
160 -> 180 ;
181 [label="x[1] <= 146.5\ngini = 0.198\nsamples = 9\nvalue = [8, 1]\nclass = 0"] ;
159 -> 181 ;
182 [label="gini = 0.0\nsamples = 7\nvalue = [7, 0]\nclass = 0"] ;
181 -> 182 ;
183 [label="x[1] <= 152.0\ngini = 0.5\nsamples = 2\nvalue = [1, 1]\nclass = 0"] ;
181 -> 183 ;
184 [label="gini = 0.0\nsamples = 1\nvalue = [0, 1]\nclass = 1"] ;
183 -> 184 ;
185 [label="gini = 0.0\nsamples = 1\nvalue = [1, 0]\nclass = 0"] ;
183 -> 185 ;
186 [label="gini = 0.0\nsamples = 5\nvalue = [0, 5]\nclass = 1"] ;
156 -> 186 ;
187 [label="x[4] <= 333.5\ngini = 0.239\nsamples = 36\nvalue = [5, 31]\nclass = 1"] ;
155 -> 187 ;
188 [label="x[0] <= 0.5\ngini = 0.165\nsamples = 33\nvalue = [3, 30]\nclass = 1"] ;
187 -> 188 ;
189 [label="x[2] <= 60.0\ngini = 0.48\nsamples = 5\nvalue = [2, 3]\nclass = 1"] ;
188 -> 189 ;
190 [label="gini = 0.0\nsamples = 2\nvalue = [0, 2]\nclass = 1"] ;
189 -> 190 ;
191 [label="x[2] <= 85.0\ngini = 0.444\nsamples = 3\nvalue = [2, 1]\nclass = 0"] ;
189 -> 191 ;
192 [label="gini = 0.0\nsamples = 2\nvalue = [2, 0]\nclass = 0"] ;
191 -> 192 ;
193 [label="gini = 0.0\nsamples = 1\nvalue = [0, 1]\nclass = 1"] ;
191 -> 193 ;
194 [label="x[5] <= 40.05\ngini = 0.069\nsamples = 28\nvalue = [1, 27]\nclass = 1"] ;
188 -> 194 ;
195 [label="gini = 0.0\nsamples = 22\nvalue = [0, 22]\nclass = 1"] ;
194 -> 195 ;
196 [label="x[5] <= 40.7\ngini = 0.278\nsamples = 6\nvalue = [1, 5]\nclass = 1"] ;
194 -> 196 ;
197 [label="gini = 0.0\nsamples = 1\nvalue = [1, 0]\nclass = 0"] ;
196 -> 197 ;
198 [label="gini = 0.0\nsamples = 5\nvalue = [0, 5]\nclass = 1"] ;
196 -> 198 ;
199 [label="x[6] <= 0.581\ngini = 0.444\nsamples = 3\nvalue = [2, 1]\nclass = 0"] ;
187 -> 199 ;
200 [label="gini = 0.0\nsamples = 1\nvalue = [0, 1]\nclass = 1"] ;
199 -> 200 ;
201 [label="gini = 0.0\nsamples = 2\nvalue = [2, 0]\nclass = 0"] ;
199 -> 201 ;
202 [label="x[4] <= 595.0\ngini = 0.219\nsamples = 72\nvalue = [9, 63]\nclass = 1"] ;
130 -> 202 ;
203 [label="x[6] <= 0.307\ngini = 0.182\nsamples = 69\nvalue = [7, 62]\nclass = 1"] ;
202 -> 203 ;
204 [label="x[5] <= 31.4\ngini = 0.401\nsamples = 18\nvalue = [5, 13]\nclass = 1"] ;
203 -> 204 ;
205 [label="gini = 0.0\nsamples = 2\nvalue = [2, 0]\nclass = 0"] ;
204 -> 205 ;
206 [label="x[1] <= 179.5\ngini = 0.305\nsamples = 16\nvalue = [3, 13]\nclass = 1"] ;
204 -> 206 ;
207 [label="x[1] <= 177.0\ngini = 0.42\nsamples = 10\nvalue = [3, 7]\nclass = 1"] ;
206 -> 207 ;
208 [label="x[3] <= 38.0\ngini = 0.219\nsamples = 8\nvalue = [1, 7]\nclass = 1"] ;
207 -> 208 ;
209 [label="gini = 0.0\nsamples = 7\nvalue = [0, 7]\nclass = 1"] ;
208 -> 209 ;
210 [label="gini = 0.0\nsamples = 1\nvalue = [1, 0]\nclass = 0"] ;
208 -> 210 ;
211 [label="gini = 0.0\nsamples = 2\nvalue = [2, 0]\nclass = 0"] ;
207 -> 211 ;
212 [label="gini = 0.0\nsamples = 6\nvalue = [0, 6]\nclass = 1"] ;
206 -> 212 ;
213 [label="x[7] <= 48.0\ngini = 0.075\nsamples = 51\nvalue = [2, 49]\nclass = 1"] ;
203 -> 213 ;
214 [label="gini = 0.0\nsamples = 42\nvalue = [0, 42]\nclass = 1"] ;
213 -> 214 ;
215 [label="x[6] <= 1.032\ngini = 0.346\nsamples = 9\nvalue = [2, 7]\nclass = 1"] ;
213 -> 215 ;
216 [label="x[7] <= 50.5\ngini = 0.219\nsamples = 8\nvalue = [1, 7]\nclass = 1"] ;
215 -> 216 ;
217 [label="gini = 0.0\nsamples = 1\nvalue = [1, 0]\nclass = 0"] ;
216 -> 217 ;
218 [label="gini = 0.0\nsamples = 7\nvalue = [0, 7]\nclass = 1"] ;
216 -> 218 ;
219 [label="gini = 0.0\nsamples = 1\nvalue = [1, 0]\nclass = 0"] ;
215 -> 219 ;
220 [label="x[3] <= 28.0\ngini = 0.444\nsamples = 3\nvalue = [2, 1]\nclass = 0"] ;
202 -> 220 ;
221 [label="gini = 0.0\nsamples = 1\nvalue = [0, 1]\nclass = 1"] ;
220 -> 221 ;
222 [label="gini = 0.0\nsamples = 2\nvalue = [2, 0]\nclass = 0"] ;
220 -> 222 ;
}